tree
version=v4
num_class=1
num_tree_per_iteration=1
label_index=0
max_feature_idx=4
objective=lambdarank
feature_names=guideline_relevance similar_patient_success interaction_safety_score comorbidity_compatibility lab_value_compatibility
feature_infos=[0.5:1] [0:0.91000000000000003] [0.5:1] [0.5:1] [0.52500000000000002:1]
tree_sizes=864 859 859 856 861 865 868 866 869 872 868 867 869 867 869 873 874 863 874 873 874 879 879 875 879 878 878 868 872 890 879 889 876 887 877 889 877 892 884 885 881 886 890 889 879 893 889 895 890 890 892 895 892 903 888 888 891 888 898 890

Tree=0
num_leaves=7
num_cat=0
split_feature=0 1 1 4 1 3
split_gain=25.3569 4.47694 3.49827 2.66938 0.552673 0.370542
threshold=0.65000000000000002 0.90166666666666673 0.73333333333333339 0.95000000000000007 0.86600000000000021 0.62500000000000011
decision_type=2 2 2 2 2 2
left_child=3 2 5 -1 -4 -2
right_child=1 -3 4 -5 -6 -7
leaf_value=-0.19941721651802113 -0.10356905810171911 -0.099100003667275893 0.12423788884266114 0.19999999999999898 0.18104454351348875 0.0092921366555805702
leaf_weight=4.698333391919733 0.50332248210906783 1.0469035580754269 4.3467635232955217 0.17350272834300984 2.8261947249993682 0.6892889216542244
leaf_count=85 12 21 40 2 27 26
internal_value=1.44884e-09 0.0958545 0.120252 -0.185193 0.14662 -0.0383391
internal_weight=14.2843 9.41247 8.36557 4.87184 7.17296 1.19261
internal_count=213 126 105 87 67 38
is_linear=0
shrinkage=0.1


Tree=1
num_leaves=7
num_cat=0
split_feature=4 1 1 3 0 1
split_gain=15.4815 10.9785 13.0895 9.8793 4.31913 3.82251
threshold=0.78333333333333344 0.84250000000000014 0.84550000000000014 0.62500000000000011 0.95000000000000007 0.8480000000000002
decision_type=2 2 2 2 2 2
left_child=3 -2 -3 -1 -5 -4
right_child=1 2 5 4 -6 -7
leaf_value=-0.1357153261528101 0.15409537638974005 -0.18484045571008792 0.19660021383088638 0.14524610587626538 -0.058416847824908427 0.028259619305102925
leaf_weight=9.8693545665591937 7.2448116838932064 2.9467468112707129 1.5840615034103382 2.176712952554225 1.9962551109492777 9.0849671661853773
leaf_count=120 18 9 1 13 22 30
internal_value=-6.11213e-10 0.0546427 0.00172495 -0.0811745 0.0478183 0.0532536
internal_weight=34.9029 20.8606 13.6158 14.0423 4.17297 10.669
internal_count=213 58 40 155 35 31
is_linear=0
shrinkage=0.1


Tree=2
num_leaves=7
num_cat=0
split_feature=0 4 3 1 1 1
split_gain=16.535 8.78985 2.35979 1.05573 3.59372 1.6734
threshold=0.65000000000000002 0.95000000000000007 0.87500000000000011 0.82700000000000018 0.81900000000000017 0.84250000000000014
decision_type=2 2 2 2 2 2
left_child=1 -1 3 4 -2 -5
right_child=2 -3 -4 5 -6 -7
leaf_value=-0.15820855148292901 0.039113155497591034 0.17953314069823156 0.14700958247767273 0.12519637691133548 -0.15989619813515199 0.033911014626503873
leaf_weight=7.092980174347761 5.2169745974242749 0.86448632180690754 2.2014633417129508 2.6406393311917773 1.0984513759613035 8.384217653423546
leaf_count=85 42 2 11 11 1 61
internal_value=-8.60228e-10 -0.121517 0.0494821 0.0371003 0.00449916 0.0557754
internal_weight=27.4992 7.95747 19.5417 17.3403 6.31543 11.0249
internal_count=213 87 126 115 43 72
is_linear=0
shrinkage=0.1


Tree=3
num_leaves=7
num_cat=0
split_feature=4 0 4 1 1 1
split_gain=11.8942 5.28364 2.01565 1.55382 3.3029 2.18194
threshold=0.78333333333333344 0.65000000000000002 0.58125000000000016 0.84250000000000014 0.86600000000000021 0.89500000000000013
decision_type=2 2 2 2 2 2
left_child=1 -1 -3 -2 -5 -6
right_child=3 2 -4 4 5 -7
leaf_value=-0.14207078629687278 0.1165046706426445 0.1463297277521825 -0.028893271896954925 -0.033978671643648012 0.16156057065382537 0.01160419288106169
leaf_weight=5.5452410764992237 4.578670259565115 0.74504542350769032 5.5237342156469822 3.1929742209613323 2.4435035288333893 1.6094151288270948
leaf_count=85 18 6 64 22 9 9
internal_value=6.55983e-10 -0.070966 -0.00806799 0.0709027 0.0420868 0.102013
internal_weight=23.6386 11.814 6.26878 11.8246 7.24589 4.05292
internal_count=213 155 70 58 40 18
is_linear=0
shrinkage=0.1


Tree=4
num_leaves=7
num_cat=0
split_feature=4 0 4 1 3 1
split_gain=8.64287 4.17079 1.34785 0.950734 1.3062 0.611653
threshold=0.78333333333333344 0.65000000000000002 0.58125000000000016 0.83400000000000019 0.87500000000000011 0.83800000000000008
decision_type=2 2 2 2 2 2
left_child=1 -1 -3 -2 5 -5
right_child=3 2 -4 4 -6 -7
leaf_value=-0.13252778421185754 0.1201380943125213 0.13716025084300384 -0.022613539441672811 -0.1689730331668261 0.14408954910794222 0.035670636051713923
leaf_weight=4.7652932964265364 2.4482163488864881 0.58629402890801419 5.3101386912167072 0.14946840703487385 1.2101767063140867 6.3906016461551189
leaf_count=85 8 6 64 1 6 43
internal_value=7.61771e-11 -0.062954 -0.00672691 0.0658137 0.0486532 0.0309937
internal_weight=20.8602 10.6617 5.89643 10.1985 7.75025 6.54007
internal_count=213 155 70 58 50 44
is_linear=0
shrinkage=0.1


Tree=5
num_leaves=7
num_cat=0
split_feature=4 0 1 1 1 1
split_gain=5.32183 3.6038 1.29974 3.67507 0.905752 2.92055
threshold=0.78333333333333344 0.65000000000000002 0.84250000000000014 0.84550000000000014 0.90166666666666673 0.87708333333333333
decision_type=2 2 2 2 2 2
left_child=1 -1 -2 -4 5 -3
right_child=2 4 3 -5 -6 -7
leaf_value=-0.12465232385378687 0.10170358780754381 -0.029015656698210036 -0.13721836020732384 0.061990732648675329 -0.065916629348633626 0.16140566278832796
leaf_weight=4.036998229101302 3.4524042271077615 2.8392830509692435 1.1374749243259428 4.9829856343567371 1.5143357887864111 1.1244114749133585
leaf_count=85 18 40 9 31 21 9
internal_value=-1.1344e-09 -0.0529624 0.0526424 0.0249681 -0.000130922 0.0250026
internal_weight=19.0879 9.51503 9.57286 6.12046 5.47803 3.96369
internal_count=213 155 58 40 70 49
is_linear=0
shrinkage=0.1


Tree=6
num_leaves=7
num_cat=0
split_feature=4 0 1 1 4 3
split_gain=5.44179 2.49607 0.777326 1.47095 0.707723 0.689654
threshold=0.78333333333333344 0.65000000000000002 0.84250000000000014 0.84550000000000014 0.58125000000000016 0.87500000000000011
decision_type=2 2 2 2 2 2
left_child=1 -1 -2 -4 -3 -5
right_child=2 4 3 5 -6 -7
leaf_value=-0.11864619174817791 0.096998955348980412 0.12473121829572385 -0.10196646872747608 0.035204304813582755 -0.020226266642844146 0.13239835973665751
leaf_weight=3.6594656296074408 3.0901335775852186 0.36389679461717594 0.69269905239343632 3.7192555144429207 4.5244511403143406 0.90834704786539067
leaf_count=85 18 6 9 25 64 6
internal_value=-5.16921e-10 -0.0561904 0.0571082 0.0339389 -0.00943539 0.0542824
internal_weight=16.9582 8.54781 8.41044 5.3203 4.88835 4.6276
internal_count=213 155 58 40 70 31
is_linear=0
shrinkage=0.1


Tree=7
num_leaves=7
num_cat=0
split_feature=4 0 1 1 1 1
split_gain=3.95572 2.1741 0.773187 1.5232 1.04601 0.724398
threshold=0.78333333333333344 0.65000000000000002 0.84250000000000014 0.86600000000000021 0.89500000000000013 0.85250000000000015
decision_type=2 2 2 2 2 2
left_child=1 -1 -2 5 -5 -4
right_child=2 -3 3 4 -6 -7
leaf_value=-0.1129656709158709 0.093403126959527877 -0.0061545921067688849 -0.0027223797865117212 0.14008764575101762 0.011251765594691626 -0.14110428370461806
leaf_weight=3.2197449747473001 2.7615762855857611 4.6692399568855762 1.9159080609679224 1.3790362887084484 1.160474881529808 0.47134972363710392
leaf_count=85 18 70 16 9 9 6
internal_value=-9.17544e-10 -0.0497476 0.0510458 0.0273035 0.0812138 -0.0300451
internal_weight=15.5773 7.88898 7.68835 4.92677 2.53951 2.38726
internal_count=213 155 58 40 18 22
is_linear=0
shrinkage=0.1


Tree=8
num_leaves=7
num_cat=0
split_feature=4 0 3 1 4 1
split_gain=3.11433 1.79207 0.566696 1.27762 0.531008 0.391246
threshold=0.71666666666666667 0.65000000000000002 0.62500000000000011 0.87433333333333352 0.65000000000000002 0.85250000000000015
decision_type=2 2 2 2 2 2
left_child=1 -1 5 -4 -3 -2
right_child=2 4 3 -5 -6 -7
leaf_value=-0.10815257133388403 0.090113757647898626 0.10994298294454197 -0.044092262342692479 0.12364104853554046 -0.016592704993296514 0.032280946904391726
leaf_weight=2.8244320880621672 2.8703473024070263 0.36083475500345219 1.5444753058254721 0.64324320480227459 4.0998387075960636 1.97441940754652
leaf_count=85 17 7 18 6 62 18
internal_value=3.78088e-10 -0.0458231 0.0474691 0.00522547 -0.00635692 0.0665448
internal_weight=14.3176 7.28511 7.03249 2.18772 4.46067 4.84477
internal_count=213 154 59 24 69 35
is_linear=0
shrinkage=0.1


Tree=9
num_leaves=7
num_cat=0
split_feature=4 0 3 1 4 1
split_gain=2.33746 1.53542 0.730731 1.63217 0.381504 0.343034
threshold=0.71666666666666667 0.65000000000000002 0.62500000000000011 0.8480000000000002 0.58125000000000016 0.89500000000000013
decision_type=2 2 2 2 2 2
left_child=1 -1 5 -4 -3 -2
right_child=2 4 3 -5 -6 -7
leaf_value=-0.10482677874138327 0.078139904515407463 0.11840418839337581 -0.098059305228004157 0.075703336525931114 -0.012734180407283364 0.010437752384177885
leaf_weight=2.4515278646722436 3.6375468224287033 0.23475876636803139 1.0230623558163645 1.1462146267294882 4.031258724629879 0.94225937128067005
leaf_count=85 26 6 12 12 63 9
internal_value=-3.37144e-10 -0.0417599 0.0415648 -0.00624563 -0.00551764 0.0642107
internal_weight=13.4666 6.71755 6.74908 2.16928 4.26602 4.57981
internal_count=213 154 59 24 69 35
is_linear=0
shrinkage=0.1


Tree=10
num_leaves=7
num_cat=0
split_feature=1 1 4 3 3 1
split_gain=2.44201 1.43485 1.01722 1.98883 1.41258 1.24186
threshold=0.86600000000000021 0.89500000000000013 0.71666666666666667 0.62500000000000011 0.62500000000000011 0.85250000000000015
decision_type=2 2 2 2 2 2
left_child=2 -2 4 5 -1 -4
right_child=1 -3 3 -5 -6 -7
leaf_value=-0.10757417394564764 0.14098878838081938 0.019039441646656222 0.078906893789053079 -0.07915640351837927 0.010706748763688323 -0.12512388670607016
leaf_weight=2.7479782616719586 1.5128848981112248 2.6633466389030218 2.5300600677728657 1.8041395619511602 1.5961375832557676 0.33819583058357228
leaf_count=95 15 33 17 18 29 6
internal_value=-5.11803e-11 0.0632169 -0.0292806 0.00310625 -0.0641148 0.0548496
internal_weight=13.1927 4.17623 9.01651 4.6724 4.34412 2.86826
internal_count=213 48 165 41 124 23
is_linear=0
shrinkage=0.1


Tree=11
num_leaves=7
num_cat=0
split_feature=4 0 1 1 1 1
split_gain=2.39896 0.858827 0.340184 0.397964 0.539944 0.506687
threshold=0.71666666666666667 0.65000000000000002 0.77850000000000008 0.86600000000000021 0.89500000000000013 0.85250000000000015
decision_type=2 2 2 2 2 2
left_child=1 -1 -2 5 -5 -4
right_child=2 -3 3 4 -6 -7
leaf_value=-0.09770910679624141 0.13630208858116818 -0.017057042567728848 0.030888490769500038 0.12959540614391998 0.018936198303802027 -0.11124967309718921
leaf_weight=2.0343671329319477 0.38784142583608616 3.7615707507357001 3.3007787466049199 0.94666533172130563 0.82537264376878738 0.27141737192869175
leaf_count=85 3 69 32 9 9 6
internal_value=5.77633e-10 -0.0453658 0.0458713 0.0393085 0.078053 0.0200888
internal_weight=11.528 5.79594 5.73208 5.34423 1.77204 3.5722
internal_count=213 154 59 56 18 38
is_linear=0
shrinkage=0.1


Tree=12
num_leaves=7
num_cat=0
split_feature=4 0 1 1 1 1
split_gain=1.67331 0.818103 0.291025 0.435456 1.50225 0.282159
threshold=0.71666666666666667 0.65000000000000002 0.77850000000000008 0.84550000000000014 0.84250000000000014 0.8480000000000002
decision_type=2 2 2 2 2 2
left_child=1 -1 -2 4 -4 -5
right_child=2 -3 3 5 -6 -7
leaf_value=-0.092977113947392873 0.13202689995642733 -0.011329945098585665 0.051323388474288724 0.13590389011454809 -0.13280270325424332 0.046868478849923144
leaf_weight=1.8460074830800293 0.32170717418193806 3.661207671277225 1.6194165721535685 0.41843986511230502 0.61002581939101208 2.3827370405197144
leaf_count=85 3 69 16 1 9 30
internal_value=4.50244e-10 -0.0386979 0.0398178 0.033921 0.000942329 0.0601686
internal_weight=10.8595 5.50722 5.35233 5.03062 2.22944 2.80118
internal_count=213 154 59 56 25 31
is_linear=0
shrinkage=0.1


Tree=13
num_leaves=7
num_cat=0
split_feature=4 0 4 1 1 1
split_gain=1.75432 0.620945 0.297172 0.22754 0.58584 0.227977
threshold=0.71666666666666667 0.65000000000000002 0.65000000000000002 0.77850000000000008 0.78600000000000014 0.86600000000000021
decision_type=2 2 2 2 2 2
left_child=1 -1 -3 -2 -5 -6
right_child=3 2 -4 4 5 -7
leaf_value=-0.08994429684904337 0.12974674893057425 0.10363642342194995 -0.023436504452018666 -0.24617811605989703 0.026107272491813806 0.073552235455677809
leaf_weight=1.7087013553827999 0.28401007875800122 0.1950046140700582 3.2717969566583633 0.071655824780464061 3.0236714258790016 1.5228461287915704
leaf_count=85 3 7 62 1 37 18
internal_value=-5.7759e-10 -0.0406063 -0.0162888 0.0428703 0.0375275 0.0419989
internal_weight=10.0777 5.1755 3.4668 4.90218 4.61817 4.54652
internal_count=213 154 69 59 56 55
is_linear=0
shrinkage=0.1


Tree=14
num_leaves=7
num_cat=0
split_feature=4 0 1 1 1 3
split_gain=1.30066 0.569441 0.206553 0.385622 0.376237 0.407408
threshold=0.71666666666666667 0.65000000000000002 0.86600000000000021 0.89500000000000013 0.85250000000000015 0.62500000000000011
decision_type=2 2 2 2 2 2
left_child=1 -1 4 -4 5 -2
right_child=2 -3 3 -5 -6 -7
leaf_value=-0.085957002806829608 0.058698692980238477 -0.012841165136534854 0.12454659743393191 0.021587098031014745 -0.10555994089630838 -0.017270795865678628
leaf_weight=1.5660472554154692 2.0148036256432542 3.3305440302938223 0.66628101654350735 0.80121340975165367 0.212178274989128 1.0866275876760481
leaf_count=85 17 69 9 9 6 18
internal_value=1.82844e-10 -0.0362254 0.0371004 0.0683334 0.0232682 0.0320818
internal_weight=9.6777 4.89659 4.7811 1.46749 3.31361 3.10143
internal_count=213 154 59 18 41 35
is_linear=0
shrinkage=0.1


Tree=15
num_leaves=7
num_cat=0
split_feature=4 0 4 1 1 1
split_gain=1.11914 0.487896 0.205547 0.204674 0.865019 0.16226
threshold=0.71666666666666667 0.65000000000000002 0.65000000000000002 0.77850000000000008 0.78600000000000014 0.84250000000000014
decision_type=2 2 2 2 2 2
left_child=1 -1 -3 -2 -5 -6
right_child=3 2 -4 4 5 -7
leaf_value=-0.081956579609001295 0.12734181736595826 0.098807961234566755 -0.018062995791426242 -0.22154683194826755 0.067435483614259134 0.025048223071797628
leaf_weight=1.4616089481860397 0.23263830319046963 0.15821577794849906 3.0803242586553097 0.13140206038951863 1.3526646737009285 2.7173545118421316
leaf_count=85 3 7 62 1 15 40
internal_value=-3.54948e-10 -0.0339979 -0.0123534 0.0360382 0.0309826 0.0391356
internal_weight=9.13421 4.70015 3.23854 4.43406 4.20142 4.07002
internal_count=213 154 69 59 56 55
is_linear=0
shrinkage=0.1


Tree=16
num_leaves=7
num_cat=0
split_feature=1 1 4 3 1 1
split_gain=1.37274 0.803117 0.5565 0.642939 0.448807 0.595413
threshold=0.78600000000000014 0.77083333333333337 0.78333333333333344 0.62500000000000011 0.90166666666666673 0.86600000000000021
decision_type=2 2 2 2 2 2
left_child=1 2 3 -1 5 -2
right_child=4 -3 -4 -5 -6 -7
leaf_value=-0.088855093546077166 0.015798981383026642 -0.18889813952895695 0.12548611714840238 0.0074414431237124316 -0.026555994510094317 0.090396256670546751
leaf_weight=1.5219920217059564 2.8284163749776781 0.37299321312457312 0.20557506941258896 1.2734751682728527 1.123626574873924 1.7210234045051036
leaf_count=76 50 7 3 29 21 27
internal_value=-8.06483e-10 -0.0505096 -0.0333096 -0.0449872 0.0300404 0.0440186
internal_weight=9.0471 3.37404 3.00104 2.79547 5.67307 4.54944
internal_count=213 115 108 105 98 77
is_linear=0
shrinkage=0.1


Tree=17
num_leaves=7
num_cat=0
split_feature=1 1 1 1 1 1
split_gain=0.836773 0.332216 1.40742 0.357012 0.486458 0.344458
threshold=0.78600000000000014 0.84250000000000014 0.84550000000000014 0.83800000000000008 0.81900000000000017 0.90750000000000008
decision_type=2 2 2 2 2 2
left_child=-1 3 -3 4 -2 -4
right_child=1 2 5 -5 -6 -7
leaf_value=-0.043250915250495028 0.09537706724664112 -0.14055066556143281 0.03752614563139 0.11355864510242626 -0.087691797324875198 -0.097419535358164167
leaf_weight=2.9496102656703442 0.30532270297408082 0.54927147924900044 3.656258038245142 0.72335852868855 0.27668581157922745 0.19947510212659825
leaf_count=115 4 9 67 9 3 6
internal_value=7.55491e-10 0.0223406 0.00921044 0.0666489 0.00834645 0.0305448
internal_weight=8.65998 5.71037 4.405 1.30537 0.582009 3.85573
internal_count=213 98 82 16 7 73
is_linear=0
shrinkage=0.1


Tree=18
num_leaves=7
num_cat=0
split_feature=4 0 3 4 1 1
split_gain=0.879031 0.336975 0.261713 0.325117 0.116059 0.52181
threshold=0.78333333333333344 0.65000000000000002 0.62500000000000011 0.95000000000000007 0.77850000000000008 0.78600000000000014
decision_type=2 2 2 2 2 2
left_child=1 -1 4 -4 -2 -6
right_child=2 -3 3 -5 5 -7
leaf_value=-0.076031165172683379 0.12470147852920509 -0.013701121249995066 0.11121947606054568 -0.030074473572011248 -0.17138937227742274 0.053766846637663825
leaf_weight=1.2299863218795506 0.19406539760530073 2.9420665903016925 0.19580486509948947 0.96765489317476749 0.10731892287731204 2.5172460423782468
leaf_count=85 3 70 6 18 1 30
internal_value=-2.28429e-11 -0.032077 0.0336072 -0.00629536 0.050078 0.0445602
internal_weight=8.15414 4.17205 3.98209 1.16346 2.81863 2.62456
internal_count=213 155 58 24 34 31
is_linear=0
shrinkage=0.1


Tree=19
num_leaves=7
num_cat=0
split_feature=4 3 0 1 1 1
split_gain=0.814806 0.29335 0.468926 0.327849 0.410028 0.232376
threshold=0.78333333333333344 0.62500000000000011 0.95000000000000007 0.89500000000000013 0.90166666666666673 0.84250000000000014
decision_type=2 2 2 2 2 2
left_child=1 3 -3 -1 -5 -2
right_child=5 2 -4 4 -6 -7
leaf_value=-0.080709192542874897 0.068173229611638395 0.11372763205109522 -0.025805523713627317 0.13634640763247441 -0.033943505580517758 0.015597543517667959
leaf_weight=1.5177061269059779 1.2884260751307013 0.31680263206362691 1.0046241879463196 0.16351952031254757 1.045055918395519 2.41896250564605
leaf_count=96 18 13 22 3 21 40
internal_value=1.58371e-10 -0.0310215 0.00764655 -0.0497639 -0.0109034 0.0338691
internal_weight=7.7551 4.04771 1.32143 2.72628 1.20858 3.70739
internal_count=213 155 35 120 24 58
is_linear=0
shrinkage=0.1


Tree=20
num_leaves=7
num_cat=0
split_feature=4 0 3 4 1 1
split_gain=0.668334 0.254362 0.2515 0.259841 0.143493 0.313995
threshold=0.78333333333333344 0.65000000000000002 0.62500000000000011 0.95000000000000007 0.84250000000000014 0.83800000000000008
decision_type=2 2 2 2 2 2
left_child=1 -1 4 -4 5 -2
right_child=2 -3 3 -5 -6 -7
leaf_value=-0.070625844770918558 0.034250758380275942 -0.013000736051004014 0.10925567944622164 -0.030484686808604514 0.028788831536101029 0.15064958592586897
leaf_weight=1.078699227422476 0.62265826202929098 2.6424070443026721 0.15589531511068322 0.90862722136080265 1.5375800570473073 0.36915066093206406
leaf_count=85 9 70 6 18 22 3
internal_value=-4.47199e-10 -0.0297055 0.0307568 -0.0100202 0.0479183 0.0775743
internal_weight=7.31502 3.72111 3.59391 1.06452 2.52939 0.991809
internal_count=213 155 58 24 34 12
is_linear=0
shrinkage=0.1


Tree=21
num_leaves=7
num_cat=0
split_feature=4 0 3 4 3 1
split_gain=0.641498 0.212207 0.183006 0.196483 0.116181 0.114096
threshold=0.71666666666666667 0.65000000000000002 0.62500000000000011 0.95000000000000007 0.87500000000000011 0.84250000000000014
decision_type=2 2 2 2 2 2
left_child=1 -1 5 -4 -3 -2
right_child=2 4 3 -5 -6 -7
leaf_value=-0.067820706997099786 0.073211549953096686 -0.018112467351827179 0.10824533958544197 -0.021948932147234944 0.09806109344672792 0.028568905033690913
leaf_weight=1.0291581754572692 0.94288532622158605 2.478925962466747 0.13364414218813159 0.87380419857800007 0.089180835988372453 1.4573587151244281
leaf_count=85 13 64 6 18 5 22
internal_value=-7.07969e-10 -0.0294536 0.0310922 -0.00467787 -0.0140782 0.0461058
internal_weight=7.00496 3.59726 3.40769 1.00745 2.56811 2.40024
internal_count=213 154 59 24 69 35
is_linear=0
shrinkage=0.1


Tree=22
num_leaves=7
num_cat=0
split_feature=4 0 3 1 1 1
split_gain=0.581257 0.185162 0.140317 0.162859 0.197457 0.102928
threshold=0.78333333333333344 0.65000000000000002 0.62500000000000011 0.8480000000000002 0.84250000000000014 0.77850000000000008
decision_type=2 2 2 2 2 2
left_child=1 -1 5 4 -4 -2
right_child=2 -3 3 -5 -6 -7
leaf_value=-0.065075157755388621 0.12242507663800327 -0.013898350983710606 0.017240738897379697 0.033553526398144448 -0.12230991715556648 0.038235908964545186
leaf_weight=0.98265594895929131 0.15585658885538656 2.5200158236548305 0.21144840866327275 0.55804129177704453 0.19480575434863567 2.1274949060752988
leaf_count=85 3 70 6 12 6 31
internal_value=8.04413e-10 -0.0282557 0.0304745 -0.00151084 -0.0496762 0.0439825
internal_weight=6.75032 3.50267 3.24765 0.964295 0.406254 2.28335
internal_count=213 155 58 24 12 34
is_linear=0
shrinkage=0.1


Tree=23
num_leaves=7
num_cat=0
split_feature=4 0 1 1 1 1
split_gain=0.579063 0.152261 0.118372 0.0953236 0.205103 0.200328
threshold=0.71666666666666667 0.65000000000000002 0.77850000000000008 0.86600000000000021 0.89500000000000013 0.85250000000000015
decision_type=2 2 2 2 2 2
left_child=1 -1 -2 5 -5 -4
right_child=2 -3 3 4 -6 -7
leaf_value=-0.062842017503772232 0.12073160140900357 -0.015522300890199995 0.022645770990528225 0.1194125449223199 0.021127232229837142 -0.10414523546109962
leaf_weight=0.94537814834620837 0.14009847305715117 2.4223421078640968 1.8864844776690013 0.31078551476821292 0.67016320675611496 0.13342719618231047
leaf_count=85 3 69 32 9 9 6
internal_value=-1.31463e-09 -0.0288058 0.0308854 0.0266908 0.0522661 0.0142705
internal_weight=6.50868 3.36772 3.14096 3.00086 0.980949 2.01991
internal_count=213 154 59 56 18 38
is_linear=0
shrinkage=0.1


Tree=24
num_leaves=7
num_cat=0
split_feature=4 0 3 4 4 1
split_gain=0.470639 0.14492 0.125741 0.128999 0.0833468 0.075988
threshold=0.71666666666666667 0.65000000000000002 0.62500000000000011 0.95000000000000007 0.65000000000000002 0.77850000000000008
decision_type=2 2 2 2 2 2
left_child=1 -1 5 -4 -3 -2
right_child=2 4 3 -5 -6 -7
leaf_value=-0.060045595345548444 0.11890181578370795 0.091828684618037282 0.10665190680442393 -0.017173260431781946 -0.016477025588809542 0.037059204590002233
leaf_weight=0.911262309062295 0.12021277844905931 0.073318856535479759 0.094498153775930294 0.76705757156014442 2.2997665368020535 2.0151211870834231
leaf_count=85 3 7 6 18 62 32
internal_value=1.44008e-09 -0.0261476 0.0286557 -0.00359172 -0.0131308 0.0416667
internal_weight=6.28124 3.28435 2.99689 0.861556 2.37309 2.13533
internal_count=213 154 59 24 69 35
is_linear=0
shrinkage=0.1


Tree=25
num_leaves=7
num_cat=0
split_feature=4 3 0 1 1 1
split_gain=0.428145 0.133658 0.304218 0.203374 0.254257 0.120008
threshold=0.71666666666666667 0.62500000000000011 0.95000000000000007 0.89500000000000013 0.90166666666666673 0.84250000000000014
decision_type=2 2 2 2 2 2
left_child=1 3 -3 -1 -5 -2
right_child=5 2 -4 4 -6 -7
leaf_value=-0.06909901175275017 0.055967120369471469 0.10925006860027001 -0.023238957192490705 0.13114370540875489 -0.025388385764857808 0.01311762404238421
leaf_weight=1.1179539184086031 0.99650913104414973 0.21724523766897597 0.85697035491466522 0.11742216162383534 0.89242239017039537 1.8994895736686883
leaf_count=95 19 13 22 3 21 40
internal_value=-1.91862e-10 -0.0251993 0.00355511 -0.0397159 -0.00718723 0.0278621
internal_weight=6.09801 3.20201 1.07422 2.1278 1.00984 2.896
internal_count=213 154 35 119 24 59
is_linear=0
shrinkage=0.1


Tree=26
num_leaves=7
num_cat=0
split_feature=4 3 0 4 1 1
split_gain=0.361727 0.124656 0.114424 0.113513 0.0814356 0.410682
threshold=0.78333333333333344 0.62500000000000011 0.65000000000000002 0.95000000000000007 0.78600000000000014 0.77850000000000008
decision_type=2 2 2 2 2 2
left_child=2 4 -1 -3 5 -2
right_child=1 3 -4 -5 -6 -7
leaf_value=-0.055567448822429324 0.1172142684758572 0.10615735116302046 -0.012024530727798568 -0.019878843430417643 0.045821743035316276 -0.16884601900089138
leaf_weight=0.83171533839777145 0.10366231435909945 0.07926921173930157 2.1995087256655097 0.72520474065095186 1.8100901730358598 0.097287461161613464
leaf_count=85 3 6 70 18 30 1
internal_value=1.18073e-09 0.0258086 -0.023972 -0.00745981 0.0391169 -0.0212784
internal_weight=5.84674 2.81551 3.03122 0.804474 2.01104 0.20095
internal_count=213 58 155 24 34 4
is_linear=0
shrinkage=0.1


Tree=27
num_leaves=7
num_cat=0
split_feature=4 1 1 1 1 3
split_gain=0.343271 0.148342 0.587794 0.182947 0.15966 0.151661
threshold=0.71666666666666667 0.84250000000000014 0.84550000000000014 0.8480000000000002 0.83800000000000008 0.62500000000000011
decision_type=2 2 2 2 2 2
left_child=-1 4 -3 -4 -2 -6
right_child=1 2 3 -5 5 -7
leaf_value=-0.023481126945493522 0.016263760604369088 -0.11895749337088601 0.12397217835362967 0.021026057522820052 0.14349394632800633 0.024328304148298147
leaf_weight=2.9595291871228255 0.44851377187296781 0.29827169887721527 0.1996830254793166 1.2739915167912839 0.29304251074790955 0.16804392915219069
leaf_count=154 10 9 1 30 3 6
internal_value=-8.64694e-10 0.0259153 0.00906377 0.0349753 0.0587429 0.100064
internal_weight=5.64108 2.68155 1.77195 1.47367 0.9096 0.461086
internal_count=213 59 40 31 19 9
is_linear=0
shrinkage=0.1


Tree=28
num_leaves=7
num_cat=0
split_feature=4 1 1 1 0 1
split_gain=0.354378 0.111835 0.389726 0.130242 0.100004 0.0968243
threshold=0.78333333333333344 0.84250000000000014 0.84550000000000014 0.8480000000000002 0.65000000000000002 0.83800000000000008
decision_type=2 2 2 2 2 2
left_child=4 5 -3 -4 -1 -2
right_child=1 2 3 -5 -6 -7
leaf_value=-0.0534401287157803 0.023572450125996416 -0.10382019267874165 0.11859554221335239 0.022273518893985184 -0.012096804201866596 0.091936409911013997
leaf_weight=0.80776908935513381 0.41259404085576568 0.24378537759184826 0.15848267078399647 1.2288854315411297 2.1221338862087578 0.41610696259886026
leaf_count=85 9 9 1 30 70 9
internal_value=1.25951e-09 0.0279847 0.0127867 0.0332766 -0.0234951 0.0578993
internal_weight=5.38976 2.45985 1.63115 1.38737 2.9299 0.828701
internal_count=213 58 40 31 155 18
is_linear=0
shrinkage=0.1


Tree=29
num_leaves=7
num_cat=0
split_feature=4 3 3 4 0 1
split_gain=0.342269 0.103594 0.0952638 0.0815506 0.0741809 0.0556613
threshold=0.71666666666666667 0.62500000000000011 0.87500000000000011 0.95000000000000007 0.65000000000000002 1.0000000180025095e-35
decision_type=2 2 2 2 2 2
left_child=2 -2 4 -3 5 -1
right_child=1 3 -4 -5 -6 -7
leaf_value=-0.039800785434585283 0.041928118281085475 0.10521830624405049 0.10421650386411015 -0.014638774749895202 -0.015747702971769844 -0.10998575210742115
leaf_weight=0.64897980046225789 1.6483767749741676 0.062310006702318677 0.057343824068084248 0.63819177821278572 1.995548600098118 0.13681865326361731
leaf_count=57 35 6 5 18 64 28
internal_value=3.93843e-10 0.0282378 -0.0233654 -0.00397742 -0.0259958 -0.052021
internal_weight=5.18757 2.34888 2.83869 0.700502 2.78135 0.785798
internal_count=213 59 154 24 149 85
is_linear=0
shrinkage=0.1


Tree=30
num_leaves=7
num_cat=0
split_feature=4 1 1 1 0 1
split_gain=0.312411 0.0842388 0.272288 0.0978709 0.0773322 0.0755886
threshold=0.78333333333333344 0.84250000000000014 0.84550000000000014 0.8480000000000002 0.65000000000000002 0.83800000000000008
decision_type=2 2 2 2 2 2
left_child=4 5 -3 -4 -1 -2
right_child=1 2 3 -5 -6 -7
leaf_value=-0.049667070545829181 0.023545548907747706 -0.093876246720416154 0.11493725329398036 0.02158217107187518 -0.012237694644543981 0.085745091515600363
leaf_weight=0.75889920548070255 0.39727305248379741 0.20349853113293637 0.12437779456377018 1.1564107118174431 2.0246543997200206 0.38446013629436493
leaf_count=85 9 9 1 30 70 9
internal_value=-6.82989e-10 0.0275679 0.0135754 0.0306479 -0.0224423 0.0541356
internal_weight=5.04957 2.26602 1.48429 1.28079 2.78355 0.781733
internal_count=213 58 40 31 155 18
is_linear=0
shrinkage=0.1


Tree=31
num_leaves=7
num_cat=0
split_feature=4 3 3 0 1 1
split_gain=0.296752 0.0897429 0.0780035 0.206186 0.131462 0.148586
threshold=0.71666666666666667 0.62500000000000011 0.62500000000000011 0.95000000000000007 0.89500000000000013 0.90166666666666673
decision_type=2 2 2 2 2 2
left_child=2 -2 4 -4 -1 -6
right_child=1 -3 3 -5 5 -7
leaf_value=-0.060143776968470522 0.040619363185344842 -0.003771229188788815 0.10313531686973532 -0.020392793081866197 0.12471834839095181 -0.019244754240463829
leaf_weight=0.93768423545407154 1.5341726182959976 0.64769936306402076 0.16381101182196278 0.77154838107526302 0.079220494255423546 0.75446809269487858
leaf_count=95 35 24 13 22 3 21
internal_value=-1.88128e-09 0.0274418 -0.0221206 0.00124089 -0.0344564 -0.00556479
internal_weight=4.8886 2.18187 2.70673 0.935359 1.77137 0.833689
internal_count=213 59 154 35 119 24
is_linear=0
shrinkage=0.1


Tree=32
num_leaves=7
num_cat=0
split_feature=4 1 3 1 1 1
split_gain=0.276886 0.0777008 0.0605621 0.0544658 0.154789 0.132531
threshold=0.78333333333333344 0.77850000000000008 0.87500000000000011 0.86600000000000021 0.85250000000000015 0.89500000000000013
decision_type=2 2 2 2 2 2
left_child=2 -2 -1 4 -3 -5
right_child=1 3 -4 5 -6 -7
leaf_value=-0.023785046552062119 0.11642646959300117 0.02088287548292149 0.093522514772848675 0.11929052465348143 -0.10778284417307563 0.01911466975407447
leaf_weight=2.5659602076048036 0.09275958547368679 1.2453165333718064 0.044777778792194911 0.18074719281867135 0.10109047219157208 0.49033965822309256
leaf_count=150 3 31 5 9 6 9
internal_value=-3.95162e-10 0.0269369 -0.0217731 0.0228224 0.0112224 0.0460955
internal_weight=4.72099 2.11025 2.61074 2.01749 1.34641 0.671087
internal_count=213 58 155 55 37 18
is_linear=0
shrinkage=0.1


Tree=33
num_leaves=7
num_cat=0
split_feature=4 3 0 4 1 1
split_gain=0.229903 0.0792319 0.0653897 0.0588764 0.0522593 0.0504567
threshold=0.71666666666666667 0.62500000000000011 0.65000000000000002 0.95000000000000007 1.0000000180025095e-35 0.77850000000000008
decision_type=2 2 2 2 2 2
left_child=2 5 4 -3 -1 -2
right_child=1 3 -4 -5 -6 -7
leaf_value=-0.03408842620664667 0.11504518478865673 0.10433201318589705 -0.010002799847609723 -0.014358901406549815 -0.10900410870857401 0.033346805097431327
leaf_weight=0.60260205029044334 0.080077678430825805 0.045205017551779636 1.8455631084507329 0.55375034268945456 0.11013255483703688 1.3503489168360827
leaf_count=57 3 6 69 18 28 32
internal_value=5.4177e-10 0.0251345 -0.019938 -0.00540093 -0.0456645 0.0379204
internal_weight=4.58768 2.02938 2.5583 0.598955 0.712735 1.43043
internal_count=213 59 154 24 85 35
is_linear=0
shrinkage=0.1


Tree=34
num_leaves=7
num_cat=0
split_feature=1 1 1 1 4 1
split_gain=0.22002 0.162719 0.176092 0.138434 0.130152 0.096188
threshold=0.78600000000000014 0.84250000000000014 0.84550000000000014 1.0000000180025095e-35 0.95000000000000007 0.8480000000000002
decision_type=2 2 2 2 2 2
left_child=3 -2 -3 4 -1 -4
right_child=1 2 5 -5 -6 -7
leaf_value=-0.025342090867610662 0.065081749005262285 -0.091980271495708352 0.11224407407047542 -0.12729628394373424 0.11441734760787797 0.0087405543397725723
leaf_weight=1.5890520450193433 0.57734716124832663 0.17137511819601092 0.094344444572925457 0.12830605322960753 0.06954931467771519 1.8584520115982739
leaf_count=95 16 9 1 18 2 72
internal_value=3.94239e-10 0.0180066 0.00521162 -0.0272231 -0.0194816 0.0137411
internal_weight=4.48843 2.70152 2.12417 1.78691 1.6586 1.9528
internal_count=213 98 82 115 97 73
is_linear=0
shrinkage=0.1


Tree=35
num_leaves=7
num_cat=0
split_feature=4 3 3 1 1 0
split_gain=0.215102 0.0700354 0.0611104 0.138979 0.135958 0.130447
threshold=0.78333333333333344 0.62500000000000011 0.62500000000000011 0.90416666666666679 0.90166666666666673 0.95000000000000007
decision_type=2 2 2 2 2 2
left_child=2 -2 3 4 -1 -4
right_child=1 -3 5 -5 -6 -7
leaf_value=-0.041365295913311242 0.03921943749339471 -0.0032739710397994681 0.094881232782721217 0.0051839234089563688 -0.16647252421217948 -0.012966494941585735
leaf_weight=0.91350062418496258 1.273918383521959 0.55763927020598192 0.13060249143745739 0.68155219918116916 0.095991436392068863 0.79391960334032774
leaf_count=99 34 24 13 18 3 22
internal_value=-1.68453e-09 0.0262818 -0.0184039 -0.0297059 -0.0532616 0.0022686
internal_weight=4.44712 1.83156 2.61557 1.69104 1.00949 0.924522
internal_count=213 58 155 120 102 35
is_linear=0
shrinkage=0.1


Tree=36
num_leaves=7
num_cat=0
split_feature=1 1 1 1 4 1
split_gain=0.224829 0.116904 0.121536 0.0965477 0.117809 0.0724161
threshold=0.78600000000000014 0.84250000000000014 0.84550000000000014 1.0000000180025095e-35 0.95000000000000007 0.8480000000000002
decision_type=2 2 2 2 2 2
left_child=3 -2 -3 4 -1 -4
right_child=1 2 5 -5 -6 -7
leaf_value=-0.026772315715585096 0.059859847213685938 -0.081083831981829446 0.10999168063086678 -0.12079498998172816 0.11338688114901026 0.010502956032604233
leaf_weight=1.614531532191904 0.54645602172240648 0.14307201746851239 0.076204083859920391 0.104144274489954 0.062283875420689472 1.8329032709298188
leaf_count=95 16 9 1 18 2 72
internal_value=-3.6217e-09 0.018757 0.00781213 -0.0273688 -0.0215662 0.0144742
internal_weight=4.3796 2.59864 2.05218 1.78096 1.67682 1.90911
internal_count=213 98 82 115 97 73
is_linear=0
shrinkage=0.1


Tree=37
num_leaves=7
num_cat=0
split_feature=4 3 1 1 1 3
split_gain=0.187598 0.0692424 0.0557614 0.107246 0.141747 0.0737244
threshold=0.78333333333333344 0.62500000000000011 0.87708333333333333 0.90166666666666673 0.90416666666666679 0.62500000000000011
decision_type=2 2 2 2 2 2
left_child=2 -2 5 -4 -5 -1
right_child=1 -3 3 4 -6 -7
leaf_value=-0.048491063487971262 0.039709504395352105 -0.0041439019078864771 0.11621014619670118 -0.15260135898817515 0.0045909837801531694 -0.008035927990073034
leaf_weight=0.82011758926091738 1.1729209248442201 0.51953427714761335 0.077619986375793704 0.061676157638430595 0.82076020119711757 0.99942449200898409
leaf_count=96 34 24 9 3 18 29
internal_value=-1.46168e-09 0.0262478 -0.0159819 0.00351694 -0.00639567 -0.0262702
internal_weight=4.47205 1.69246 2.7796 0.960056 0.882436 1.81954
internal_count=213 58 155 30 21 125
is_linear=0
shrinkage=0.1


Tree=38
num_leaves=7
num_cat=0
split_feature=1 1 1 4 1 3
split_gain=0.185349 0.0948343 0.0761695 0.100417 0.0727417 0.0698139
threshold=0.78600000000000014 0.84250000000000014 1.0000000180025095e-35 0.95000000000000007 0.84550000000000014 0.62500000000000011
decision_type=2 2 2 2 2 2
left_child=2 5 3 -1 -3 -2
right_child=1 4 -4 -5 -6 -7
leaf_value=-0.023764883717692836 0.074967625494989601 -0.06930973237322377 -0.11553604137897999 0.11244613374977937 0.01232876223020421 -0.013966819903897624
leaf_weight=1.7320129034924319 0.40539563260972533 0.1156019335612658 0.086602933122776338 0.055868764407932647 1.9532670275075359 0.11283566243946552
leaf_count=95 10 9 18 2 73 6
internal_value=-1.10894e-10 0.0173494 -0.023945 -0.0195085 0.00776706 0.0556037
internal_weight=4.46158 2.5871 1.87448 1.78788 2.06887 0.518231
internal_count=213 98 115 97 82 16
is_linear=0
shrinkage=0.1


Tree=39
num_leaves=7
num_cat=0
split_feature=4 3 3 4 0 1
split_gain=0.157328 0.0503342 0.0437618 0.0424424 0.0405663 0.0362717
threshold=0.78333333333333344 0.87500000000000011 0.62500000000000011 0.95000000000000007 0.65000000000000002 0.83800000000000008
decision_type=2 2 2 2 2 2
left_child=1 4 5 -4 -1 -2
right_child=2 -3 3 -5 -6 -7
leaf_value=-0.036238948117428678 0.0053751152631154805 0.10530235766792702 0.10426226821545306 -0.0087463430283152861 -0.0081252591132040825 0.047614581030313484
leaf_weight=0.6373887042282157 0.27004826953634598 0.035993784433230647 0.036103970021940657 0.41801350750029087 2.63531611522194 0.8224573228508234
leaf_count=85 9 5 6 18 65 25
internal_value=3.28483e-10 -0.0123072 0.0263288 0.000238247 -0.0136007 0.0371737
internal_weight=4.85532 3.3087 1.54662 0.454117 3.2727 1.09251
internal_count=213 155 58 24 150 34
is_linear=0
shrinkage=0.1


Tree=40
num_leaves=7
num_cat=0
split_feature=4 1 1 1 1 1
split_gain=0.149067 0.0550128 0.0623058 0.0995197 0.069005 0.0534548
threshold=0.78333333333333344 0.84250000000000014 0.86600000000000021 0.89500000000000013 0.85250000000000015 0.83800000000000008
decision_type=2 2 2 2 2 2
left_child=-1 5 4 -4 -3 -2
right_child=1 2 3 -5 -6 -7
leaf_value=-0.011971186020620729 0.018187969629138098 0.0017433407348708388 0.11755418539620331 0.011336325717292366 -0.10571508976008728 0.080716734570954518
leaf_weight=3.2794614207523409 0.25846963864751138 0.409860176499933 0.11630131641868502 0.36518576834350824 0.069958561565726995 0.29024432972073555
leaf_count=155 9 16 9 9 6 9
internal_value=-1.79549e-09 0.025999 0.0115784 0.0369928 -0.0139243 0.0512628
internal_weight=4.78948 1.51002 0.961306 0.481487 0.479819 0.548714
internal_count=213 58 40 18 22 18
is_linear=0
shrinkage=0.1


Tree=41
num_leaves=7
num_cat=0
split_feature=4 3 1 1 0 1
split_gain=0.136023 0.0476614 0.0429084 0.129024 0.0422528 0.0360878
threshold=0.71666666666666667 0.62500000000000011 0.84250000000000014 0.83800000000000008 0.65000000000000002 0.84550000000000014
decision_type=2 2 2 2 2 2
left_child=4 2 3 -2 -1 -4
right_child=1 -3 5 -5 -6 -7
leaf_value=-0.034621253854907885 0.016294385430499846 -0.0023298404922375486 -0.07026674581634347 0.12835182638272963 -0.0057667676926487967 0.026628999940562809
leaf_weight=0.62909843979286995 0.25492731900885679 0.43188321928028006 0.041338417679071426 0.17213180288672447 2.6253595630405471 0.54766016150824726
leaf_count=85 10 24 3 3 69 19
internal_value=1.50706e-09 0.0254983 0.0373269 0.0614606 -0.0113444 0.0198284
internal_weight=4.7024 1.44794 1.01606 0.427059 3.25446 0.588999
internal_count=213 59 35 13 154 22
is_linear=0
shrinkage=0.1


Tree=42
num_leaves=7
num_cat=0
split_feature=4 3 0 1 1 1
split_gain=0.134218 0.0443482 0.0392615 0.0392019 0.0989651 0.0372173
threshold=0.78333333333333344 0.62500000000000011 0.65000000000000002 0.84250000000000014 0.83800000000000008 0.86600000000000021
decision_type=2 2 2 2 2 2
left_child=2 3 -1 4 -2 -5
right_child=1 -3 -4 5 -6 -7
leaf_value=-0.033652583284508236 0.022183967143865311 -0.00069209098577168371 -0.0057275145920120986 -0.021116526012713813 0.12540284515094033 0.036921362714479558
leaf_weight=0.62274790428637095 0.23763277288526274 0.42423313460312784 2.6287504263455048 0.15136115765199065 0.15249992534518242 0.40918166702613235
leaf_count=85 9 24 70 10 3 12
internal_value=-1.08013e-09 0.0261932 -0.0110759 0.0381906 0.0625314 0.0212496
internal_weight=4.62641 1.37491 3.2515 0.950676 0.390133 0.560543
internal_count=213 58 155 34 12 22
is_linear=0
shrinkage=0.1


Tree=43
num_leaves=7
num_cat=0
split_feature=4 1 1 1 0 1
split_gain=0.131969 0.0407601 0.0803399 0.0483236 0.0362998 0.0340882
threshold=0.78333333333333344 0.77850000000000008 0.78600000000000014 0.81900000000000017 0.65000000000000002 1.0000000180025095e-35
decision_type=2 2 2 2 2 2
left_child=4 -2 -3 -4 5 -1
right_child=1 2 3 -5 -6 -7
leaf_value=-0.025194059002788149 0.11161322474311618 -0.13098363257176035 0.11016882605817485 0.022433637803947755 -0.0057215098089362145 -0.10647191948823623
leaf_weight=0.55993987339024931 0.054178068879991659 0.032983217388391384 0.066355952061712631 1.1644588544731957 2.6218946483568288 0.056839254917576909
leaf_count=57 3 1 2 52 70 28
internal_value=-1.28604e-09 0.0266774 0.0230362 0.0271636 -0.0108563 -0.0326842
internal_weight=4.55665 1.31798 1.2638 1.23081 3.23867 0.616779
internal_count=213 58 55 54 155 85
is_linear=0
shrinkage=0.1


Tree=44
num_leaves=7
num_cat=0
split_feature=4 1 1 1 3 1
split_gain=0.118877 0.0363573 0.0842662 0.0407748 0.0361167 0.0311825
threshold=0.71666666666666667 0.77850000000000008 0.78600000000000014 0.79166666666666685 0.87500000000000011 0.88800000000000001
decision_type=2 2 2 2 2 2
left_child=4 -2 -3 -4 5 -1
right_child=1 2 3 -5 -6 -7
leaf_value=-0.019066594225554963 0.11063998075334967 -0.12936482108254532 0.1096525821201577 0.02278763498435768 0.10059645312186441 0.0013525377746146658
leaf_weight=1.9692500401433797 0.048531081760302075 0.035531722009181865 0.056725509464740642 1.1407590459566561 0.029103648848831543 1.2058502706931902
leaf_count=122 3 1 1 54 5 27
internal_value=2.86805e-09 0.0257409 0.0223993 0.0269025 -0.0102953 -0.0113117
internal_weight=4.48575 1.28155 1.23302 1.19748 3.2042 3.1751
internal_count=213 59 56 55 154 149
is_linear=0
shrinkage=0.1


Tree=45
num_leaves=7
num_cat=0
split_feature=4 3 3 0 1 0
split_gain=0.091293 0.0525403 0.051641 0.0688244 0.0598252 0.0373186
threshold=0.78333333333333344 0.62500000000000011 0.62500000000000011 0.95000000000000007 0.89500000000000013 0.65000000000000002
decision_type=2 2 2 2 2 2
left_child=2 -2 4 5 -1 -4
right_child=1 -3 3 -5 -6 -7
leaf_value=-0.040760718277362648 0.037928849089778879 -0.0073622858349601389 -0.045457675324569069 0.00096007691201414425 -0.0059144367694577227 0.11767662863229936
leaf_weight=0.73395886037906244 0.83366357535123803 0.3697281361091882 0.017074167262762452 1.4851376200094819 1.4987789005972443 0.07846556679578498
leaf_count=96 34 24 3 22 24 10
internal_value=-1.9733e-09 0.0240137 -0.00757795 0.00625255 -0.0173693 0.0885225
internal_weight=5.01681 1.20339 3.81342 1.58068 2.23274 0.0955397
internal_count=213 58 155 35 120 13
is_linear=0
shrinkage=0.1


Tree=46
num_leaves=7
num_cat=0
split_feature=4 3 1 1 1 1
split_gain=0.0954025 0.0365975 0.0343871 0.0898495 0.0328124 0.0301791
threshold=0.71666666666666667 0.62500000000000011 0.84250000000000014 0.83800000000000008 0.84550000000000014 0.87433333333333352
decision_type=2 2 2 2 2 2
left_child=-1 2 3 -2 -4 -3
right_child=1 5 4 -5 -6 -7
leaf_value=-0.0083494796893926453 0.018460154331058919 -0.0095639717524910271 -0.072534723863238601 0.1230710585229523 0.026280441539552703 0.1033479868988036
leaf_weight=3.4989579015964409 0.20540230337064691 0.34528870368376374 0.036298094317317009 0.13677538745105267 0.45274594658985734 0.025413835421204567
leaf_count=154 10 18 3 3 19 6
internal_value=9.68914e-11 0.0243064 0.0359595 0.0602753 0.0189461 -0.00182319
internal_weight=4.70088 1.20192 0.831222 0.342178 0.489044 0.370703
internal_count=213 59 35 13 22 24
is_linear=0
shrinkage=0.1


Tree=47
num_leaves=7
num_cat=0
split_feature=4 3 1 1 0 1
split_gain=0.0947425 0.0327001 0.0303832 0.0727367 0.0297182 0.0286427
threshold=0.71666666666666667 0.62500000000000011 0.84250000000000014 0.83800000000000008 0.65000000000000002 1.0000000180025095e-35
decision_type=2 2 2 2 2 2
left_child=4 2 3 -2 5 -1
right_child=1 -3 -4 -5 -6 -7
leaf_value=-0.022369493051134393 0.022887080453439432 3.3305408973009816e-05 0.019986700807057403 0.12083386094233145 -0.0040400974154536145 -0.10576710784182351
leaf_weight=0.54371878642996341 0.20038182067219146 0.36174275679513812 0.46438456466421485 0.12196628469973803 2.9063717992976308 0.044556673499755561
leaf_count=57 10 24 22 3 69 28
internal_value=1.28779e-09 0.0249177 0.0363597 0.059947 -0.00818891 -0.0286861
internal_weight=4.64312 1.14848 0.786733 0.322348 3.49465 0.588275
internal_count=213 59 35 13 154 85
is_linear=0
shrinkage=0.1


Tree=48
num_leaves=7
num_cat=0
split_feature=4 1 1 1 0 1
split_gain=0.0921079 0.0324232 0.0647064 0.0361411 0.0265526 0.0283703
threshold=0.71666666666666667 0.77850000000000008 0.78600000000000014 0.79166666666666685 0.65000000000000002 1.0000000180025095e-35
decision_type=2 2 2 2 2 2
left_child=4 -2 -3 -4 5 -1
right_child=1 2 3 -5 -6 -7
leaf_value=-0.021258030330544547 0.10984505566698428 -0.12450918206611557 0.10904487071649122 0.02160564618864734 -0.0040930479692935255 -0.10549991484076389
leaf_weight=0.53680188993894296 0.043369888560846337 0.029456743970513233 0.049647770822047965 0.98712080542463809 2.8998638875200413 0.043193569377763197
leaf_count=57 3 1 1 54 69 28
internal_value=-8.75121e-11 0.025088 0.0216404 0.0257929 -0.00799962 -0.0275317
internal_weight=4.58945 1.1096 1.06623 1.03677 3.47986 0.579995
internal_count=213 59 56 55 154 85
is_linear=0
shrinkage=0.1


Tree=49
num_leaves=7
num_cat=0
split_feature=4 3 1 1 1 1
split_gain=0.0832443 0.0384931 0.0268538 0.0259314 0.0586955 0.0303803
threshold=0.71666666666666667 0.62500000000000011 0.8480000000000002 0.84250000000000014 0.83800000000000008 0.84550000000000014
decision_type=2 2 2 2 2 2
left_child=-1 3 -3 4 -2 -5
right_child=1 2 -4 5 -6 -7
leaf_value=-0.0075453328388027877 0.025690687328666924 -0.037998088897699012 0.01886896397468172 -0.071028004564601635 0.11886151738976328 0.029620945674568872
leaf_weight=3.4623069872104679 0.17937339178752132 0.13410473382100463 0.21807294053724036 0.032409165985882282 0.10852355230599642 0.40172997093759477
leaf_count=154 10 12 12 3 3 19
internal_value=-1.91084e-09 0.0243194 -0.00278528 0.0375399 0.0608117 0.0221073
internal_weight=4.53652 1.07421 0.352178 0.722036 0.287897 0.434139
internal_count=213 59 24 35 13 22
is_linear=0
shrinkage=0.1


Tree=50
num_leaves=7
num_cat=0
split_feature=4 3 0 1 1 1
split_gain=0.0832151 0.0353025 0.0247356 0.0250947 0.0245794 0.0243876
threshold=0.78333333333333344 0.62500000000000011 0.65000000000000002 1.0000000180025095e-35 0.87433333333333352 0.84250000000000014
decision_type=2 2 2 2 2 2
left_child=2 5 3 -1 -3 -2
right_child=1 4 -4 -5 -6 -7
leaf_value=-0.020806794172047061 0.0620484970904185 -0.0078846393722120725 -0.003632854566523925 -0.10504769506464218 0.10311676611131813 0.023160420430664446
leaf_weight=0.53511169748526333 0.26424063090234973 0.32259238325059414 2.8950219941907562 0.03786414422938833 0.021263619710225612 0.41380273690447211
leaf_count=57 12 18 70 28 6 22
internal_value=-7.62454e-10 0.0250795 -0.00739005 -0.0263737 -0.00102045 0.0383155
internal_weight=4.4899 1.0219 3.468 0.572976 0.343856 0.678043
internal_count=213 58 155 85 24 34
is_linear=0
shrinkage=0.1


Tree=51
num_leaves=7
num_cat=0
split_feature=4 3 3 1 0 1
split_gain=0.0805848 0.0302756 0.0256638 0.0206835 0.0205059 0.0222138
threshold=0.71666666666666667 0.62500000000000011 0.87500000000000011 0.87433333333333352 0.65000000000000002 1.0000000180025095e-35
decision_type=2 2 2 2 2 2
left_child=2 -2 4 -3 5 -1
right_child=1 3 -4 -5 -6 -7
leaf_value=-0.020400046356921369 0.037305733911992357 -0.0055280593690789706 0.09846931618491972 0.10280191021049399 -0.0045185295561443175 -0.10459781591137976
leaf_weight=0.53287190460832867 0.66603083419613518 0.31736847152933478 0.022805452812462934 0.018661269859876484 2.8556850544409826 0.033292076615907717
leaf_count=57 35 18 5 6 64 28
internal_value=3.32487e-10 0.0249593 -0.00726074 0.000488 -0.0079654 -0.0253511
internal_weight=4.44672 1.00206 3.44465 0.33603 3.42185 0.566164
internal_count=213 59 154 24 149 85
is_linear=0
shrinkage=0.1


Tree=52
num_leaves=7
num_cat=0
split_feature=4 1 1 1 4 0
split_gain=0.0770539 0.027687 0.0546055 0.0314937 0.0227258 0.0185292
threshold=0.71666666666666667 0.77850000000000008 0.78600000000000014 0.84250000000000014 0.65000000000000002 0.65000000000000002
decision_type=2 2 2 2 2 2
left_child=4 -2 -3 -4 -1 -6
right_child=1 2 3 -5 5 -7
leaf_value=0.098322285177377844 0.10895747501676389 -0.12200892940156279 0.053730339006857364 0.013289515603937985 -0.024337894083593267 -0.0044362143903982952
leaf_weight=0.020335254928795954 0.037504634936340042 0.025843482464551926 0.27469649817794561 0.64407990640029311 0.55983290338917902 2.8462525648064911
leaf_count=7 3 1 15 40 85 62
internal_value=-2.52366e-09 0.0246937 0.0213482 0.0253805 -0.00707804 -0.00770731
internal_weight=4.40855 0.982125 0.94462 0.918776 3.42642 3.40609
internal_count=213 59 56 55 154 147
is_linear=0
shrinkage=0.1


Tree=53
num_leaves=7
num_cat=0
split_feature=4 3 1 1 0 1
split_gain=0.0709741 0.0316093 0.0244226 0.0220063 0.0190476 0.0193406
threshold=0.78333333333333344 0.62500000000000011 0.8480000000000002 0.84250000000000014 0.65000000000000002 1.0000000180025095e-35
decision_type=2 2 2 2 2 2
left_child=4 -2 3 -3 5 -1
right_child=1 2 -4 -5 -6 -7
leaf_value=-0.019329170480378518 0.037504617213506813 5.8031713400656075e-05 0.020757829233186361 -0.084774673748327783 -0.0034181469621967528 -0.10413251610042691
leaf_weight=0.52665055247780435 0.61982965993229289 0.072847399860620499 0.19928517343942076 0.052700919564813375 2.8637849272636231 0.028340540840872563
leaf_count=57 34 6 12 6 70 28
internal_value=-4.48719e-10 0.0242623 -0.00100589 -0.0355519 -0.00670407 -0.0236596
internal_weight=4.36344 0.944663 0.324833 0.125548 3.41878 0.554991
internal_count=213 58 24 12 155 85
is_linear=0
shrinkage=0.1


Tree=54
num_leaves=7
num_cat=0
split_feature=4 3 1 1 1 3
split_gain=0.0705135 0.0256408 0.0206169 0.0485843 0.0280562 0.018886
threshold=0.78333333333333344 0.62500000000000011 0.84250000000000014 0.83800000000000008 0.84550000000000014 0.87500000000000011
decision_type=2 2 2 2 2 2
left_child=5 2 3 -2 -4 -1
right_child=1 -3 4 -5 -6 -7
leaf_value=-0.007217426736142455 0.023968614642503119 0.0012170042407365182 -0.07432840971500608 0.11662557235663323 0.029498898693659178 0.091845558292849738
leaf_weight=3.3851199733981052 0.14869785017799575 0.31354680319782346 0.028156343847513199 0.091358170844614506 0.34396602539345622 0.01935503861750465
leaf_count=150 9 24 3 3 19 5
internal_value=-2.34987e-09 0.0244718 0.0363825 0.0592311 0.0216429 -0.00665424
internal_weight=4.3302 0.925725 0.612178 0.240056 0.372122 3.40448
internal_count=213 58 34 12 22 155
is_linear=0
shrinkage=0.1


Tree=55
num_leaves=7
num_cat=0
split_feature=4 1 1 1 4 3
split_gain=0.0693869 0.0246712 0.0437505 0.0280682 0.0181034 0.0169949
threshold=0.71666666666666667 0.77850000000000008 0.78600000000000014 0.79166666666666685 0.65000000000000002 0.62500000000000011
decision_type=2 2 2 2 2 2
left_child=4 -2 -3 -4 -1 -6
right_child=1 2 3 -5 5 -7
leaf_value=0.094424595538922892 0.10841066770622568 -0.1184958245893182 0.10797214460306673 0.021015475478562327 -0.013005346646978572 0.0014230356561583243
leaf_weight=0.017662877362454643 0.033872025203890987 0.021788351237773895 0.038914185017347336 0.80510583764407784 1.9877022792970822 1.3853218648582695
leaf_count=7 3 1 1 54 118 29
internal_value=1.28421e-09 0.0246883 0.0214129 0.0250247 -0.00655076 -0.00707952
internal_weight=4.29037 0.89968 0.865808 0.84402 3.39069 3.37302
internal_count=213 59 56 55 154 147
is_linear=0
shrinkage=0.1


Tree=56
num_leaves=7
num_cat=0
split_feature=4 1 1 1 3 0
split_gain=0.0701107 0.0279249 0.066538 0.096871 0.0395777 0.0527943
threshold=0.78333333333333344 0.87708333333333333 0.90166666666666673 0.90416666666666679 0.62500000000000011 0.95000000000000007
decision_type=2 2 2 2 2 2
left_child=1 4 -3 -4 -1 -6
right_child=-2 2 3 -5 5 -7
leaf_value=-0.034375386897373343 0.024811373391563939 0.11622439643930715 -0.14942443247791309 0.0056817149189292687 0.08584144069876698 -0.0088792963350294105
leaf_weight=0.66651049203574153 0.88045278843492258 0.051352791982935631 0.041863823309540638 1.0548197173047809 0.062097386922686959 1.122877184767276
leaf_count=96 58 9 3 18 7 22
internal_value=2.80342e-09 -0.00728291 0.00497036 -0.000239169 -0.0148807 -0.00391555
internal_weight=3.87997 2.99952 1.14804 1.09668 1.85149 1.18497
internal_count=213 155 30 21 125 29
is_linear=0
shrinkage=0.1


Tree=57
num_leaves=7
num_cat=0
split_feature=4 3 1 1 1 1
split_gain=0.0580267 0.032181 0.0194672 0.0183663 0.0180272 0.0407845
threshold=0.71666666666666667 0.62500000000000011 0.8480000000000002 0.84250000000000014 0.84250000000000014 0.83800000000000008
decision_type=2 2 2 2 2 2
left_child=-1 4 3 -3 5 -2
right_child=1 2 -4 -5 -6 -7
leaf_value=-0.0059917297264278765 0.026547733534708236 -0.0019020102570394904 0.016672209501571465 -0.083183917227289919 0.02270826896434993 0.11518662336044481
leaf_weight=3.3283668779877189 0.14071942173177365 0.066441623959690332 0.18350066227139905 0.047798271756619215 0.34242152108345181 0.082250566221773624
leaf_count=154 10 6 12 6 22 3
internal_value=3.17163e-09 0.023105 -0.00350325 -0.0359106 0.0371172 0.0592454
internal_weight=4.1915 0.863132 0.297741 0.11424 0.565392 0.22297
internal_count=213 59 24 12 35 13
is_linear=0
shrinkage=0.1


Tree=58
num_leaves=7
num_cat=0
split_feature=4 3 1 0 1 1
split_gain=0.0597152 0.0293508 0.0178699 0.016121 0.0162531 0.0157425
threshold=0.71666666666666667 0.62500000000000011 0.87433333333333352 0.65000000000000002 1.0000000180025095e-35 0.77850000000000008
decision_type=2 2 2 2 2 2
left_child=3 5 -3 4 -1 -2
right_child=1 2 -4 -5 -6 -7
leaf_value=-0.018059520611174013 0.10771856332861024 -0.0076669862946282252 0.10264291557637827 -0.0029083565491823562 -0.10373388409280765 0.033486860707985684
leaf_weight=0.52534500476031132 0.030250503565184661 0.27463502483442426 0.015515295031946152 2.7750868028670084 0.023117203145375242 0.51396273251157254
leaf_count=57 3 18 6 69 28 32
internal_value=-1.61796e-09 0.0239182 -0.00176835 -0.00600456 -0.0216706 0.0376131
internal_weight=4.15791 0.834364 0.29015 3.32355 0.548462 0.544213
internal_count=213 59 24 154 85 35
is_linear=0
shrinkage=0.1


Tree=59
num_leaves=7
num_cat=0
split_feature=4 3 1 1 1 1
split_gain=0.0582892 0.0237961 0.0160595 0.0355105 0.0252819 0.015046
threshold=0.71666666666666667 0.62500000000000011 0.84250000000000014 0.83800000000000008 0.84550000000000014 0.87433333333333352
decision_type=2 2 2 2 2 2
left_child=-1 2 3 -2 -4 -3
right_child=1 5 4 -5 -6 -7
leaf_value=-0.0058871402958934962 0.027401447164284134 -0.0046462135022167896 -0.074556239827980833 0.11387390007733147 0.030612643934616542 0.1024568702988372
leaf_weight=3.3139525792867062 0.13319151318864886 0.26917308522388339 0.024753094650804996 0.073805623687803745 0.29853550717234612 0.013788350683171302
leaf_count=154 10 18 3 3 19 6
internal_value=2.37845e-09 0.0239899 0.0364853 0.0582335 0.0225602 0.000572783
internal_weight=4.1272 0.813247 0.530286 0.206997 0.323289 0.282961
internal_count=213 59 35 13 22 24
is_linear=0
shrinkage=0.1


end of trees

feature_importances:
similar_patient_success=186
lab_value_compatibility=77
comorbidity_compatibility=53
guideline_relevance=44

parameters:
[boosting: gbdt]
[objective: lambdarank]
[metric: ndcg]
[tree_learner: serial]
[device_type: cpu]
[data_sample_strategy: bagging]
[data: ]
[valid: ]
[num_iterations: 60]
[learning_rate: 0.1]
[num_leaves: 7]
[num_threads: 0]
[seed: 0]
[deterministic: 0]
[force_col_wise: 0]
[force_row_wise: 0]
[histogram_pool_size: -1]
[max_depth: 4]
[min_data_in_leaf: 1]
[min_sum_hessian_in_leaf: 0.001]
[bagging_fraction: 1]
[pos_bagging_fraction: 1]
[neg_bagging_fraction: 1]
[bagging_freq: 0]
[bagging_seed: 3]
[bagging_by_query: 0]
[feature_fraction: 1]
[feature_fraction_bynode: 1]
[feature_fraction_seed: 2]
[extra_trees: 0]
[extra_seed: 6]
[early_stopping_round: 0]
[early_stopping_min_delta: 0]
[first_metric_only: 0]
[max_delta_step: 0]
[lambda_l1: 0]
[lambda_l2: 0]
[linear_lambda: 0]
[min_gain_to_split: 0]
[drop_rate: 0.1]
[max_drop: 50]
[skip_drop: 0.5]
[xgboost_dart_mode: 0]
[uniform_drop: 0]
[drop_seed: 4]
[top_rate: 0.2]
[other_rate: 0.1]
[min_data_per_group: 100]
[max_cat_threshold: 32]
[cat_l2: 10]
[cat_smooth: 10]
[max_cat_to_onehot: 4]
[top_k: 20]
[monotone_constraints: ]
[monotone_constraints_method: basic]
[monotone_penalty: 0]
[feature_contri: ]
[forcedsplits_filename: ]
[refit_decay_rate: 0.9]
[cegb_tradeoff: 1]
[cegb_penalty_split: 0]
[cegb_penalty_feature_lazy: ]
[cegb_penalty_feature_coupled: ]
[path_smooth: 0]
[interaction_constraints: ]
[verbosity: -1]
[saved_feature_importance_type: 0]
[use_quantized_grad: 0]
[num_grad_quant_bins: 4]
[quant_train_renew_leaf: 0]
[stochastic_rounding: 1]
[linear_tree: 0]
[max_bin: 255]
[max_bin_by_feature: ]
[min_data_in_bin: 1]
[bin_construct_sample_cnt: 200000]
[data_random_seed: 1]
[is_enable_sparse: 1]
[enable_bundle: 1]
[use_missing: 1]
[zero_as_missing: 0]
[feature_pre_filter: 1]
[pre_partition: 0]
[two_round: 0]
[header: 0]
[label_column: ]
[weight_column: ]
[group_column: ]
[ignore_column: ]
[categorical_feature: ]
[forcedbins_filename: ]
[precise_float_parser: 0]
[parser_config_file: ]
[objective_seed: 5]
[num_class: 1]
[is_unbalance: 0]
[scale_pos_weight: 1]
[sigmoid: 1]
[boost_from_average: 1]
[reg_sqrt: 0]
[alpha: 0.9]
[fair_c: 1]
[poisson_max_delta_step: 0.7]
[tweedie_variance_power: 1.5]
[lambdarank_truncation_level: 30]
[lambdarank_norm: 1]
[label_gain: ]
[lambdarank_position_bias_regularization: 0]
[eval_at: 3]
[multi_error_top_k: 1]
[auc_mu_weights: ]
[num_machines: 1]
[local_listen_port: 12400]
[time_out: 120]
[machine_list_filename: ]
[machines: ]
[gpu_platform_id: -1]
[gpu_device_id: -1]
[gpu_use_dp: 0]
[num_gpu: 1]

end of parameters

pandas_categorical:null
